#include <stdint.h>
#include <math.h>
#include <stdarg.h>

// Force visibility of math functions in global namespace
using namespace std;

// If uint16_t is still being stubborn
#ifndef uint16_t
typedef unsigned short uint16_t;
#endif

#pragma once
#include <cstdarg>
namespace Eloquent {
    namespace ML {
        namespace Port {
            class SVM {
                public:
                    /**
                    * Predict class for features vector
                    */
                    int predict(float *x) {
                        float kernels[77] = { 0 };
                        float decisions[1] = { 0 };
                        int votes[2] = { 0 };
                        kernels[0] = compute_kernel(x,   1.785463954324  , -0.515879272004  , -1.856542933517  , -1.643403167495  , -0.770944889219 );
                        kernels[1] = compute_kernel(x,   0.752361845209  , -0.001265665639  , 0.808236671971  , 1.224540637993  , -0.621552688643 );
                        kernels[2] = compute_kernel(x,   1.184753147004  , 0.121838908929  , 0.808330197227  , 0.937942815811  , -0.664421780601 );
                        kernels[3] = compute_kernel(x,   -0.545761446292  , -0.036506768605  , 1.118547897442  , 1.390820195569  , -0.533174039281 );
                        kernels[4] = compute_kernel(x,   0.427433992449  , 0.165070195047  , 0.009792377662  , 1.55251504476  , -0.71406729583 );
                        kernels[5] = compute_kernel(x,   1.646491966275  , -0.251915765722  , -0.128536362233  , -0.833519335087  , -0.696241088874 );
                        kernels[6] = compute_kernel(x,   -0.884252960815  , -0.175508806924  , -0.635269991582  , -0.464825441852  , 0.475021549292 );
                        kernels[7] = compute_kernel(x,   -0.488911567386  , -0.357513902452  , -0.906003158331  , -0.665743771759  , 0.375558540777 );
                        kernels[8] = compute_kernel(x,   -0.032622759148  , -0.355930352525  , -0.808103065495  , -0.716902564016  , 0.422938470208 );
                        kernels[9] = compute_kernel(x,   -0.279851677151  , -0.359065378842  , -0.974982377349  , -0.722492999184  , 0.275925083594 );
                        kernels[10] = compute_kernel(x,   -0.082491835727  , 0.154852237407  , 1.190078671092  , 0.828744540727  , -0.597552385247 );
                        kernels[11] = compute_kernel(x,   0.344147441153  , 0.024034376769  , 1.024245757314  , 0.475844056237  , -0.640086935944 );
                        kernels[12] = compute_kernel(x,   -7.0615303e-05  , 0.060890082615  , 1.00304290124  , 0.610421848433  , -0.638346232112 );
                        kernels[13] = compute_kernel(x,   0.325513609937  , 0.062136165837  , 0.713761124524  , 0.235554180935  , -0.670914186857 );
                        kernels[14] = compute_kernel(x,   -0.200172468745  , -0.339635941172  , 0.719148485919  , 1.436355652819  , -0.621770836488 );
                        kernels[15] = compute_kernel(x,   -0.6355782246  , -0.294483887748  , 0.675536324951  , 1.505025789303  , -0.683245538199 );
                        kernels[16] = compute_kernel(x,   1.511729698689  , -0.479594344503  , 0.537811931833  , -0.841514429833  , -0.75829307616 );
                        kernels[17] = compute_kernel(x,   0.764797008129  , -0.329359586141  , -0.810038030748  , -0.730245541327  , 0.665464976338 );
                        kernels[18] = compute_kernel(x,   -0.797822197875  , -0.056811150948  , 1.25467548535  , 0.568876645046  , 2.409091487582 );
                        kernels[19] = compute_kernel(x,   -0.612272349912  , -0.118988008313  , 1.679253816932  , 0.312923454095  , 4.099522155957 );
                        kernels[20] = compute_kernel(x,   0.867084240661  , -0.248611769933  , 1.309849287774  , -0.043494061531  , 3.209103476223 );
                        kernels[21] = compute_kernel(x,   1.509891517588  , -0.304453937548  , -0.38885436907  , -1.062474128336  , -0.644149211783 );
                        kernels[22] = compute_kernel(x,   -0.928981039419  , -0.388852525196  , -0.634016350451  , -0.487849019349  , 0.422735204765 );
                        kernels[23] = compute_kernel(x,   -1.308836542978  , -0.406961045685  , -0.636514159324  , -0.473756220534  , 0.470576703801 );
                        kernels[24] = compute_kernel(x,   0.208052162671  , -0.453536041333  , -0.834518091943  , -1.136682746993  , -0.221738083946 );
                        kernels[25] = compute_kernel(x,   0.132723119657  , -0.428987834138  , -0.92476630827  , -1.008954092679  , -0.07171021948 );
                        kernels[26] = compute_kernel(x,   -0.255524922556  , -0.350516606783  , -0.849391849449  , -0.949201208139  , 0.156750457028 );
                        kernels[27] = compute_kernel(x,   1.015453960127  , -0.485680475025  , -0.376887687005  , -1.198586752299  , -0.705558683088 );
                        kernels[28] = compute_kernel(x,   0.882993112592  , -0.508419291964  , -0.359437158951  , -1.234623645583  , -0.679215344546 );
                        kernels[29] = compute_kernel(x,   -1.070645184299  , -0.109473262344  , 0.590310352392  , 0.030103374355  , 1.477085101833 );
                        kernels[30] = compute_kernel(x,   -0.98778695463  , -0.308857342532  , 0.693733391949  , -0.051924559569  , 1.349309296401 );
                        kernels[31] = compute_kernel(x,   -1.070645184299  , -0.109473262344  , 0.590310352392  , 0.030103374355  , 1.477085101833 );
                        kernels[32] = compute_kernel(x,   1.613762432835  , -0.153806379777  , 0.276480816611  , -0.895788803825  , -0.756591093704 );
                        kernels[33] = compute_kernel(x,   0.78641898046  , -0.088803219656  , 1.268771572297  , 1.211034177099  , -0.67344895308 );
                        kernels[34] = compute_kernel(x,   0.751985609532  , -0.137660111189  , 1.33636152248  , 1.404386025182  , -0.74502451542 );
                        kernels[35] = compute_kernel(x,   0.32868623563  , -0.029082962859  , 1.115985866683  , 1.433222427319  , -0.775247410871 );
                        kernels[36] = compute_kernel(x,   0.896680378502  , 0.023463164448  , 1.016130534166  , 1.356187578791  , -0.833020113945 );
                        kernels[37] = compute_kernel(x,   0.878699904847  , -0.301912416878  , -0.100922981282  , -0.870203107828  , -0.766443215586 );
                        kernels[38] = compute_kernel(x,   1.44911357549  , 0.4912147493  , -1.276048544037  , -1.000644376364  , -0.523683897913 );
                        kernels[39] = compute_kernel(x,   0.800827260066  , -0.099323490855  , 1.41696015638  , 1.307291151847  , -0.279114760789 );
                        kernels[40] = compute_kernel(x,   -1.013109215526  , -0.196786205274  , 1.007079667488  , 0.742511764317  , 0.410508900022 );
                        kernels[41] = compute_kernel(x,   -0.473475747612  , 0.02473226598  , 0.687954794259  , 1.666783356636  , -0.421098794902 );
                        kernels[42] = compute_kernel(x,   -1.015437049245  , 0.270419503199  , 1.889834648403  , 0.448064447761  , 0.5814820943 );
                        kernels[43] = compute_kernel(x,   -0.473809770923  , 0.086292776837  , -0.932985584289  , -0.233606885406  , -0.183692798747 );
                        kernels[44] = compute_kernel(x,   -0.823339972556  , 0.170734349076  , -0.541609210895  , -0.08891743412  , 0.021025472214 );
                        kernels[45] = compute_kernel(x,   -0.31022751641  , -0.023126952699  , -1.007206907993  , -0.200385500724  , -0.3346143698 );
                        kernels[46] = compute_kernel(x,   -0.749059512491  , 0.155410946699  , -0.167404567696  , -0.08810793936  , 0.439827598556 );
                        kernels[47] = compute_kernel(x,   -0.790416055093  , 0.136223526345  , -0.388978008855  , -0.272809609674  , 0.036153303551 );
                        kernels[48] = compute_kernel(x,   0.100617510304  , 0.033078464124  , 0.225410890221  , -1.323672069787  , -0.550291023199 );
                        kernels[49] = compute_kernel(x,   -0.795173134795  , 0.009950925793  , -0.159178039048  , -1.258900702717  , -0.530503832859 );
                        kernels[50] = compute_kernel(x,   0.646752516601  , -0.073818612063  , 0.804709626934  , 0.682431621488  , -0.430614406883 );
                        kernels[51] = compute_kernel(x,   -0.422356013777  , 0.338674035729  , 0.079269379223  , 1.625418985307  , -0.650508592548 );
                        kernels[52] = compute_kernel(x,   0.959187233825  , 0.41210118828  , -0.710862409716  , 1.452970989044  , -0.834517514846 );
                        kernels[53] = compute_kernel(x,   -1.14550149504  , 20.118296882217  , -0.991211360369  , 0.611082258476  , 7.913231892871 );
                        kernels[54] = compute_kernel(x,   0.649789492378  , -0.044810746998  , 1.036176220769  , 1.171093644517  , -0.44232816408 );
                        kernels[55] = compute_kernel(x,   0.175997068642  , -0.331607754708  , 0.099494500309  , -0.265233763278  , -0.635908819922 );
                        kernels[56] = compute_kernel(x,   -0.356330417906  , 1.167925750984  , 0.44569566677  , 0.830253912102  , 1.4900188182 );
                        kernels[57] = compute_kernel(x,   0.15795233285  , -0.41179636459  , 1.253993906659  , 0.165935605278  , -0.513286699448 );
                        kernels[58] = compute_kernel(x,   -0.058743324035  , -0.452686932988  , 1.260801630353  , 1.602568121446  , -0.591907713924 );
                        kernels[59] = compute_kernel(x,   -0.149463689756  , -0.219475230199  , 1.329394532395  , 1.455780407677  , -0.501209575036 );
                        kernels[60] = compute_kernel(x,   0.073939063749  , -0.284263527023  , 1.240404710385  , 1.613855393322  , -0.542190163629 );
                        kernels[61] = compute_kernel(x,   -1.049089603055  , -0.360824161617  , 0.194946068126  , 0.381315249796  , -0.295316903763 );
                        kernels[62] = compute_kernel(x,   0.334456377839  , 0.069868064852  , -0.228292097483  , -0.723984409976  , -0.549976504946 );
                        kernels[63] = compute_kernel(x,   0.274035858103  , -0.009207947155  , -0.327315134605  , -0.563917480893  , -0.433768273185 );
                        kernels[64] = compute_kernel(x,   0.760934646766  , 0.094074309271  , -0.401391251164  , -0.612640904187  , -0.442726246728 );
                        kernels[65] = compute_kernel(x,   0.57597578463  , 0.041201773444  , -0.229947235641  , -0.513555854449  , -0.423222361741 );
                        kernels[66] = compute_kernel(x,   0.398412441528  , 0.702980165411  , 0.058673795703  , 2.916437263465  , 0.85292103158 );
                        kernels[67] = compute_kernel(x,   1.078967156396  , 0.462732108186  , -0.202892687505  , -0.614554593784  , -0.43697530055 );
                        kernels[68] = compute_kernel(x,   1.246560921694  , 0.489984211961  , -0.200531457738  , -0.649511552126  , -0.358656300321 );
                        kernels[69] = compute_kernel(x,   -0.472877430293  , -0.466569594694  , 1.262613481447  , 1.513276915811  , -0.545483399025 );
                        kernels[70] = compute_kernel(x,   0.160587317111  , -0.2208889323  , 1.401301267951  , 1.154847444749  , -0.543183909625 );
                        kernels[71] = compute_kernel(x,   0.977962060095  , -0.124384259115  , 1.238354910852  , 1.233417760327  , -0.531236727942 );
                        kernels[72] = compute_kernel(x,   1.248675600917  , 0.054649472974  , 0.757060289391  , -0.613128691062  , -0.392672458294 );
                        kernels[73] = compute_kernel(x,   0.905237082556  , -0.57091370776  , 1.129602981834  , 1.257570970418  , -0.53645333066 );
                        kernels[74] = compute_kernel(x,   1.34482972867  , -0.460532496882  , 1.053974872565  , 1.310862601622  , -0.513757410711 );
                        kernels[75] = compute_kernel(x,   1.239529614341  , -0.536737632397  , 1.109177075254  , 1.352695920233  , -0.543116024486 );
                        kernels[76] = compute_kernel(x,   0.369479420913  , 0.10881240326  , -0.362328650604  , -0.607200042249  , -0.138474651838 );
                        float decision = 0.057747065572;
                        decision = decision - ( + kernels[0] * -0.061595026355  + kernels[1] * -1.0  + kernels[2] * -1.0  + kernels[3] * -1.0  + kernels[4] * -1.0  + kernels[5] * -1.0  + kernels[6] * -1.0  + kernels[7] * -0.619604683247  + kernels[8] * -1.0  + kernels[9] * -1.0  + kernels[10] * -1.0  + kernels[11] * -1.0  + kernels[12] * -1.0  + kernels[13] * -1.0  + kernels[14] * -1.0  + kernels[15] * -1.0  + kernels[16] * -1.0  + kernels[17] * -0.193068234597  + kernels[18] * -0.262429049726  + kernels[19] * -0.382461069293  + kernels[20] * -0.564936436075  + kernels[21] * -1.0  + kernels[22] * -1.0  + kernels[23] * -0.687327512214  + kernels[24] * -1.0  + kernels[25] * -1.0  + kernels[26] * -1.0  + kernels[27] * -0.550018066576  + kernels[28] * -1.0  + kernels[29] * -0.827438976214  + kernels[30] * -1.0  + kernels[31] * -0.998074848174  + kernels[32] * -1.0  + kernels[33] * -1.0  + kernels[34] * -1.0  + kernels[35] * -1.0  + kernels[36] * -1.0  + kernels[37] * -1.0 );
                        decision = decision - ( + kernels[38] * 1.0  + kernels[39] * 0.144895779842  + kernels[40] * 1.0  + kernels[41] * 0.880454024506  + kernels[42] * 1.0  + kernels[43] * 1.0  + kernels[44] * 0.656005846943  + kernels[45] * 1.0  + kernels[46] * 1.0  + kernels[47] * 1.0  + kernels[48] * 1.0  + kernels[49] * 1.0  + kernels[50] * 0.349519608261  + kernels[51] * 0.35325096247  + kernels[52] * 0.763782407046  + kernels[53] * 0.942353121021  + kernels[54] * 1.0  + kernels[55] * 1.0  + kernels[56] * 1.0  + kernels[57] * 1.0  + kernels[58] * 1.0  + kernels[59] * 0.246700921651  + kernels[60] * 1.0  + kernels[61] * 0.484352496513  + kernels[62] * 1.0  + kernels[63] * 1.0  + kernels[64] * 1.0  + kernels[65] * 1.0  + kernels[66] * 0.446161423606  + kernels[67] * 0.372386712635  + kernels[68] * 1.0  + kernels[69] * 0.507090597977  + kernels[70] * 1.0  + kernels[71] * 1.0  + kernels[72] * 1.0  + kernels[73] * 1.0  + kernels[74] * 1.0  + kernels[75] * 1.0  + kernels[76] * 1.0 );

                        return decision > 0 ? 0 : 1;
                    }

                protected:
                    /**
                    * Compute kernel between feature vector and support vector.
                    * Kernel type: rbf
                    */
                    float compute_kernel(float *x, ...) {
                        va_list w;
                        va_start(w, x);
                        float kernel = 0.0;

                        for (uint16_t i = 0; i < 5; i++) {
                            kernel += pow(x[i] - va_arg(w, double), 2);
                        }

                        return exp(-0.198990113611202 * kernel);
                    }
                };
            }
        }
    }